digraph Tree {
node [shape=box, style="filled, rounded", color="black", fontname="helvetica"] ;
edge [fontname="helvetica"] ;
0 [label=<log_Direct GHG Emissions (Metric Tons CO2e) &le; 0.871<br/>friedman_mse = 77.533<br/>samples = 6610<br/>value = -0.029>, fillcolor="#f5cdb1"] ;
1 [label=<log_Direct GHG Emissions (Metric Tons CO2e) &le; 0.785<br/>friedman_mse = 77.581<br/>samples = 6602<br/>value = -0.024>, fillcolor="#f5cdb0"] ;
0 -> 1 [labeldistance=2.5, labelangle=45, headlabel="True"] ;
2 [label=<log_Direct GHG Emissions (Metric Tons CO2e) &le; 0.782<br/>friedman_mse = 77.547<br/>samples = 6527<br/>value = -0.041>, fillcolor="#f5cdb1"] ;
1 -> 2 ;
3 [label=<log_Direct GHG Emissions (Metric Tons CO2e) &le; 0.777<br/>friedman_mse = 77.513<br/>samples = 6518<br/>value = -0.034>, fillcolor="#f5cdb1"] ;
2 -> 3 ;
4 [label=<log_Direct GHG Emissions (Metric Tons CO2e) &le; 0.772<br/>friedman_mse = 77.497<br/>samples = 6506<br/>value = -0.042>, fillcolor="#f5cdb1"] ;
3 -> 4 ;
5 [label=<friedman_mse = 77.437<br/>samples = 6493<br/>value = 0.005>, fillcolor="#f5cdb0"] ;
4 -> 5 ;
6 [label=<friedman_mse = 77.774<br/>samples = 13<br/>value = -6.72>, fillcolor="#ffffff"] ;
4 -> 6 ;
7 [label=<friedman_mse = 65.734<br/>samples = 12<br/>value = 4.582>, fillcolor="#eeab7a"] ;
3 -> 7 ;
8 [label=<friedman_mse = 77.507<br/>samples = 9<br/>value = -6.326>, fillcolor="#fefcfa"] ;
2 -> 8 ;
9 [label=<DOF Gross Floor Area &le; 0.039<br/>friedman_mse = 78.468<br/>samples = 75<br/>value = 1.427>, fillcolor="#f2c29f"] ;
1 -> 9 ;
10 [label=<Site EUI (kBtu/ft²) &le; 0.537<br/>friedman_mse = 59.859<br/>samples = 29<br/>value = 4.757>, fillcolor="#eda978"] ;
9 -> 10 ;
11 [label=<friedman_mse = 27.474<br/>samples = 13<br/>value = 10.167>, fillcolor="#e58139"] ;
10 -> 11 ;
12 [label=<Year Built &le; 0.728<br/>friedman_mse = 53.508<br/>samples = 16<br/>value = 0.931>, fillcolor="#f3c6a5"] ;
10 -> 12 ;
13 [label=<friedman_mse = 82.387<br/>samples = 8<br/>value = 2.004>, fillcolor="#f2be99"] ;
12 -> 13 ;
14 [label=<friedman_mse = 17.754<br/>samples = 8<br/>value = -0.923>, fillcolor="#f6d4bb"] ;
12 -> 14 ;
15 [label=<Longitude &le; 0.517<br/>friedman_mse = 78.8<br/>samples = 46<br/>value = -0.673>, fillcolor="#f6d2b8"] ;
9 -> 15 ;
16 [label=<Property Id &le; 0.446<br/>friedman_mse = 67.435<br/>samples = 19<br/>value = 2.499>, fillcolor="#f1ba93"] ;
15 -> 16 ;
17 [label=<friedman_mse = 45.04<br/>samples = 8<br/>value = -1.881>, fillcolor="#f8dbc6"] ;
16 -> 17 ;
18 [label=<friedman_mse = 59.625<br/>samples = 11<br/>value = 6.11>, fillcolor="#eb9f69"] ;
16 -> 18 ;
19 [label=<Order &le; 0.461<br/>friedman_mse = 74.738<br/>samples = 27<br/>value = -2.905>, fillcolor="#f9e3d2"] ;
15 -> 19 ;
20 [label=<friedman_mse = 95.69<br/>samples = 15<br/>value = -5.86>, fillcolor="#fef9f5"] ;
19 -> 20 ;
21 [label=<friedman_mse = 34.967<br/>samples = 12<br/>value = -0.158>, fillcolor="#f5ceb2"] ;
19 -> 21 ;
22 [label=<friedman_mse = 20.256<br/>samples = 8<br/>value = -4.172>, fillcolor="#fbece1"] ;
0 -> 22 [labeldistance=2.5, labelangle=-45, headlabel="False"] ;
}